digraph Tree {
node [shape=box, style="filled", color="black"] ;
0 [label="worst concave points <= 0.146\ngini = 0.467\nsamples = 398\nvalue = [148, 250]\nclass = 양성", fillcolor="#399de568"] ;
1 [label="worst area <= 929.8\ngini = 0.169\nsamples = 269\nvalue = [25, 244]\nclass = 양성", fillcolor="#399de5e5"] ;
0 -> 1 [labeldistance=2.5, labelangle=45, headlabel="True"] ;
2 [label="worst perimeter <= 102.05\ngini = 0.076\nsamples = 252\nvalue = [10, 242]\nclass = 양성", fillcolor="#399de5f4"] ;
1 -> 2 ;
3 [label="area error <= 48.975\ngini = 0.018\nsamples = 215\nvalue = [2, 213]\nclass = 양성", fillcolor="#399de5fd"] ;
2 -> 3 ;
4 [label="gini = 0.0\nsamples = 212\nvalue = [0, 212]\nclass = 양성", fillcolor="#399de5ff"] ;
3 -> 4 ;
5 [label="worst compactness <= 0.085\ngini = 0.444\nsamples = 3\nvalue = [2, 1]\nclass = 악성", fillcolor="#e581397f"] ;
3 -> 5 ;
6 [label="gini = 0.0\nsamples = 2\nvalue = [2, 0]\nclass = 악성", fillcolor="#e58139ff"] ;
5 -> 6 ;
7 [label="gini = 0.0\nsamples = 1\nvalue = [0, 1]\nclass = 양성", fillcolor="#399de5ff"] ;
5 -> 7 ;
8 [label="worst texture <= 29.18\ngini = 0.339\nsamples = 37\nvalue = [8, 29]\nclass = 양성", fillcolor="#399de5b9"] ;
2 -> 8 ;
9 [label="concave points error <= 0.018\ngini = 0.071\nsamples = 27\nvalue = [1, 26]\nclass = 양성", fillcolor="#399de5f5"] ;
8 -> 9 ;
10 [label="gini = 0.0\nsamples = 26\nvalue = [0, 26]\nclass = 양성", fillcolor="#399de5ff"] ;
9 -> 10 ;
11 [label="gini = 0.0\nsamples = 1\nvalue = [1, 0]\nclass = 악성", fillcolor="#e58139ff"] ;
9 -> 11 ;
12 [label="mean texture <= 24.985\ngini = 0.42\nsamples = 10\nvalue = [7, 3]\nclass = 악성", fillcolor="#e5813992"] ;
8 -> 12 ;
13 [label="gini = 0.0\nsamples = 7\nvalue = [7, 0]\nclass = 악성", fillcolor="#e58139ff"] ;
12 -> 13 ;
14 [label="gini = 0.0\nsamples = 3\nvalue = [0, 3]\nclass = 양성", fillcolor="#399de5ff"] ;
12 -> 14 ;
15 [label="worst texture <= 19.91\ngini = 0.208\nsamples = 17\nvalue = [15, 2]\nclass = 악성", fillcolor="#e58139dd"] ;
1 -> 15 ;
16 [label="gini = 0.0\nsamples = 2\nvalue = [0, 2]\nclass = 양성", fillcolor="#399de5ff"] ;
15 -> 16 ;
17 [label="gini = 0.0\nsamples = 15\nvalue = [15, 0]\nclass = 악성", fillcolor="#e58139ff"] ;
15 -> 17 ;
18 [label="mean perimeter <= 72.515\ngini = 0.089\nsamples = 129\nvalue = [123, 6]\nclass = 악성", fillcolor="#e58139f3"] ;
0 -> 18 [labeldistance=2.5, labelangle=-45, headlabel="False"] ;
19 [label="gini = 0.0\nsamples = 3\nvalue = [0, 3]\nclass = 양성", fillcolor="#399de5ff"] ;
18 -> 19 ;
20 [label="area error <= 13.475\ngini = 0.046\nsamples = 126\nvalue = [123, 3]\nclass = 악성", fillcolor="#e58139f9"] ;
18 -> 20 ;
21 [label="gini = 0.0\nsamples = 1\nvalue = [0, 1]\nclass = 양성", fillcolor="#399de5ff"] ;
20 -> 21 ;
22 [label="worst concavity <= 0.203\ngini = 0.031\nsamples = 125\nvalue = [123, 2]\nclass = 악성", fillcolor="#e58139fb"] ;
20 -> 22 ;
23 [label="gini = 0.0\nsamples = 1\nvalue = [0, 1]\nclass = 양성", fillcolor="#399de5ff"] ;
22 -> 23 ;
24 [label="mean concavity <= 0.091\ngini = 0.016\nsamples = 124\nvalue = [123, 1]\nclass = 악성", fillcolor="#e58139fd"] ;
22 -> 24 ;
25 [label="worst texture <= 23.075\ngini = 0.278\nsamples = 6\nvalue = [5, 1]\nclass = 악성", fillcolor="#e58139cc"] ;
24 -> 25 ;
26 [label="gini = 0.0\nsamples = 1\nvalue = [0, 1]\nclass = 양성", fillcolor="#399de5ff"] ;
25 -> 26 ;
27 [label="gini = 0.0\nsamples = 5\nvalue = [5, 0]\nclass = 악성", fillcolor="#e58139ff"] ;
25 -> 27 ;
28 [label="gini = 0.0\nsamples = 118\nvalue = [118, 0]\nclass = 악성", fillcolor="#e58139ff"] ;
24 -> 28 ;
}